34 128
14 -0.0548856 0.0831117 0.149986 0.0943877 0.0054432 0.0571996 0.0729889 0.0504123 -0.0149964 -0.0061508 -0.00263681 -0.0942512 0.0486252 0.0213344 0.0438374 0.0961635 0.192967 0.135231 0.125453 -0.188199 -0.0471856 0.0559712 0.0570116 -0.0485207 0.0401965 0.0199536 0.0418754 0.10099 0.0025722 -0.0140318 -0.00108468 -0.0301193 -0.0227771 -0.00974402 0.107847 -0.022741 -0.146396 -0.0583783 0.0543842 0.0252126 0.0347899 -0.165446 0.119877 -0.448108 -0.043459 0.000866758 0.0296427 0.0506061 0.0226451 0.0131747 0.152415 0.354712 0.0710215 -0.176281 0.0784786 0.0826465 0.183186 0.183437 0.477375 -1.04002 0.015841 -0.021605 -0.042468 -0.165009 0.133112 0.153739 -0.224626 -0.282808 0.0956124 -0.295649 0.30993 -0.171431 0.163488 0.216481 -0.575045 0.745378 0.237121 -0.162405 0.205272 0.136604 0.102797 0.288129 0.226596 -0.806332 0.0189357 0.17972 -0.167532 0.284424 0.202808 -0.272364 0.436261 0.256606 0.233731 0.0284607 -0.202591 0.130687 -0.0389981 -0.0291359 1.25088 0.186111 -0.00931085 -0.211287 -0.0373047 -0.118385 0.121949 0.0868146 0.0361077 0.0579954 0.00226751 0.0290391 -0.00344788 -0.196638 -0.0189165 -0.0450819 0.0579895 -0.0367619 -0.134641 -0.0876178 -0.187859 -0.118926 0.00122558 0.15956 -0.119438 0.938673 -0.0302921 -0.0200887 0.0409541 0.0189929
34 0.0208806 -0.0448386 -0.00987161 -0.00476359 0.00619773 0.0241324 0.0828073 0.0117923 0.0342945 -0.00777692 0.0170572 -0.0977612 -0.0189626 -0.0186711 -0.00155383 0.00470825 -0.0446636 -0.0141072 0.0320976 -0.0361826 0.0316126 -0.0892447 -0.0105048 0.00762387 -0.0194303 -0.00538565 -0.0390431 -0.0703343 -0.0770541 -0.0720858 0.0264651 -0.0297188 0.0753833 0.00608783 -0.00729501 -0.00830476 0.0348813 0.00467655 -0.0964063 0.0203426 -0.0419504 0.0393262 0.160734 -0.358931 -0.0273736 0.00596981 0.014414 0.00859985 0.0181546 0.0320392 0.176689 0.441147 0.0151345 -0.105327 -0.0231688 0.0544011 0.116974 0.125207 0.558332 -1.32943 0.0268208 0.0225337 0.0194726 -0.0967224 0.0573798 0.0404522 -0.14584 -0.266575 0.0994056 -0.102271 0.162018 -0.154805 0.0778263 0.145142 -0.643287 0.761126 0.155315 -0.113425 0.172199 0.146109 0.0769965 0.275594 0.193424 -0.819049 -0.0339265 0.273693 -0.081188 0.248172 0.18565 -0.235177 0.4393 0.284998 0.15317 0.026952 -0.152518 0.107839 0.0565849 0.0925803 1.13356 0.186628 -0.0415064 -0.176857 -0.0734595 -0.111586 0.196115 0.187428 0.0363597 -0.0177358 -0.0889437 -0.0283931 -0.00899241 -0.257961 -0.00452111 -0.0502201 0.085554 -0.0601072 -0.0227406 -0.0585724 -0.0963297 -0.0472932 0.0225759 0.0487773 -0.10276 0.945722 -0.00375765 -0.0892079 0.0768093 0.107339
23 -0.0183625 -0.0189948 0.12845 0.11631 -0.0112385 0.0187959 0.0420048 0.043845 -0.113437 -0.0141473 -0.0532298 -0.0285657 6.6929e-05 0.0215421 0.0090721 -0.0226251 0.0496094 0.0207912 0.151767 -0.145396 0.0615912 -0.0310478 -0.0402491 0.0113058 0.0138987 -0.0449764 -0.0246604 -0.00767463 -0.0184887 -0.0459953 0.0146277 0.0435844 0.075371 0.0632773 0.0985135 -0.0202302 0.0170801 0.0160767 -0.0922259 0.0374841 -0.06848 -0.0136832 0.178774 -0.389972 -0.073835 -0.0470022 0.072255 0.110088 0.0711073 0.0120096 0.173584 0.478171 0.0492253 -0.17411 -0.0637378 0.0923184 0.218205 0.238402 0.674773 -1.57345 0.0277921 0.0645905 0.0486785 -0.0487407 0.0530493 0.0731543 -0.172193 -0.310324 0.151028 -0.100956 0.236438 -0.207503 0.0968796 0.187015 -0.662423 0.681885 0.25916 -0.206306 0.125927 0.159862 -0.0188707 0.300437 0.220438 -0.912635 -0.055802 0.267601 -0.0756835 0.308383 0.251762 -0.26447 0.47392 0.319366 0.290545 0.0611384 -0.240997 0.165516 0.0951762 0.161309 1.11359 0.212112 -0.108213 -0.202354 -0.124464 -0.162069 0.237315 0.273326 0.0643814 -0.0427497 -0.0692978 -0.0651453 0.0182523 -0.390592 -0.0422984 -0.199898 0.123161 -0.0805912 -0.0592207 -0.138253 -0.193365 -0.0906718 -0.0204414 0.0751559 -0.119386 1.18582 0.0446288 -0.0705753 0.180558 0.194832
20 -0.0125223 -0.0486832 0.111912 0.0835893 0.0014333 0.0243765 0.0780967 0.0394066 -0.0194842 -0.00418478 0.00418291 -0.0959831 0.0244788 -0.00678531 0.0297484 0.0909545 0.162664 0.135632 0.244068 -0.33053 -0.0248536 0.0205186 -0.0074327 0.0121676 -0.0418913 -0.00110891 -0.023516 -0.0844968 -0.109628 -0.103874 0.0316427 -0.123691 0.0915652 -0.0375548 0.0213015 -0.0230827 -0.105695 -0.0375818 -0.0373761 0.0296415 -0.0126053 -0.0960881 0.134324 -0.282911 0.0595487 -0.0355912 -0.0319274 0.0231657 0.00671755 0.0514314 0.198135 0.477624 0.0642048 -0.238037 0.107148 0.0966829 0.219666 0.21806 0.486814 -1.17738 0.0408891 -0.0430337 -0.0456389 -0.293063 0.168146 0.155421 -0.183563 -0.298359 0.079559 -0.181641 0.239924 -0.161134 0.120756 0.170769 -0.605424 0.79727 0.27417 -0.193601 0.332537 0.230539 0.200843 0.411663 0.219503 -0.830284 0.0135995 0.314306 -0.215013 0.367446 0.220227 -0.348333 0.444311 0.251565 0.129143 -0.0153955 -0.170219 0.0997291 -0.0238121 -0.0143103 1.17722 0.175831 0.0236496 -0.193886 -0.0132999 -0.0890796 0.129742 0.0597019 0.0293003 0.0435577 -0.0712648 0.0487879 -0.0222559 -0.115363 0.0257966 0.0963592 0.0317768 -0.0269563 -0.13755 -0.0760771 -0.167591 -0.101942 0.0502361 0.181646 -0.118239 0.944484 -0.10808 -0.166607 0.0144054 0.0347979
2 -0.0239944 0.0841276 -0.00482913 -0.0285055 0.0093753 0.090291 0.167718 0.0644036 0.158956 -0.00502664 0.0567812 -0.200207 0.0357853 -0.0103043 0.0512152 0.127848 0.107535 0.125024 0.0392526 -0.10133 -0.0883841 0.0453272 -0.0274749 0.0568562 -0.0447663 0.0422405 0.0358541 0.0533674 -0.0575914 -0.0542727 0.00575949 -0.065683 0.00232454 -0.0469743 0.124593 -0.0330814 -0.0025789 -0.00309372 0.0219589 -0.00650691 0.0197267 -0.016641 0.163311 -0.55868 0.0170003 -0.0188034 -0.0202919 0.0104393 -0.00621231 0.0291528 0.227895 0.505281 0.00938535 -0.0540628 0.024466 0.043862 0.0958004 0.0953292 0.559422 -1.24338 0.019238 -0.00122298 -0.00416357 -0.112952 0.0760096 0.0756237 -0.182788 -0.265538 0.071108 -0.136398 0.160871 -0.120335 0.0778853 0.131143 -0.540238 0.683859 0.165299 -0.109634 0.246372 0.172889 0.135164 0.29736 0.219325 -0.826377 -0.0194377 0.184008 -0.0975645 0.208555 0.150537 -0.193829 0.404577 0.250227 0.128291 0.0146272 -0.162886 0.119936 0.0237255 0.0466256 1.20839 0.184057 -0.0113085 -0.154686 -0.0581315 -0.0977703 0.155966 0.13665 0.0124475 0.0142376 -0.0977614 -0.00591399 -0.0162201 -0.242204 -0.00926307 -0.0280041 0.0664532 -0.0589248 -0.0619571 -0.0553141 -0.137913 -0.0811413 0.0313499 0.105899 -0.139464 1.07635 -0.0793067 -0.254036 0.146842 0.222573
3 -0.00200717 0.00422308 0.0123282 -0.00213214 0.00715003 0.0264047 0.0498119 0.0259745 0.0876224 -0.0058837 0.0302783 -0.0639485 0.0285201 -0.00806488 0.0189308 0.0775252 0.0614858 0.0612863 -0.0069047 -0.046174 -0.0799921 0.0690698 -0.0521725 0.0667579 -0.0523193 0.0214546 0.0275272 0.0315732 -0.0905536 -0.0912386 0.0105044 -0.0774721 0.0388113 -0.0362588 0.136493 -0.0328356 -0.0225455 -0.0056654 0.00488815 0.0039204 0.00946252 -0.0222975 0.158024 -0.490714 -0.0187929 0.00269541 0.0102753 -0.000519789 0.00686825 -0.0215416 0.191986 0.453917 0.0176466 -0.0860899 0.0372563 0.0543015 0.13738 0.131393 0.517941 -1.20721 0.0178926 -0.0153076 -0.00838779 -0.137291 0.0872812 0.0919618 -0.177314 -0.273325 0.0723248 -0.120469 0.163688 -0.123518 0.0552582 0.116496 -0.511716 0.613512 0.184947 -0.124562 0.236214 0.169537 0.143977 0.296066 0.19723 -0.757943 -0.0187553 0.224578 -0.12685 0.244329 0.16973 -0.220912 0.388779 0.235178 0.124792 -0.00255436 -0.158927 0.113878 0.0201584 0.0471645 1.17597 0.177425 -0.00684286 -0.183547 -0.0524993 -0.0914184 0.154256 0.120393 0.0130682 0.0173773 -0.0828715 0.00442641 -0.0171424 -0.210539 0.00300733 -0.00426605 0.0705885 -0.0575904 -0.0687501 -0.0741403 -0.132663 -0.0674771 0.0226326 0.105574 -0.130553 1.06023 -0.0854757 -0.267303 0.16539 0.242142
8 -0.0232221 0.102981 0.00103768 -0.0379023 0.0167408 0.0763559 0.10161 0.0438268 0.155293 -0.00267199 0.0501808 -0.118965 0.0501594 0.0012446 0.0466731 0.125235 0.120528 0.117253 -0.0256264 -0.020583 -0.0908628 0.0833882 -0.0155191 0.0343965 -0.0156944 0.0472405 0.0349049 0.0278444 -0.0205318 -0.018974 -0.0133183 -0.0483407 -0.0778889 -0.0524528 0.114544 -0.0237107 -0.0724658 -0.025028 0.0892834 -0.0123846 0.0456761 -0.0265953 0.141367 -0.635668 -0.0390588 0.0570571 -0.00152664 -0.0100393 -0.014066 -0.0111756 0.149195 0.331183 0.0438713 -0.0569819 0.0924717 0.0379891 0.104889 0.105802 0.461626 -0.986713 0.00245982 -0.0473386 -0.0542481 -0.170623 0.123384 0.129386 -0.231509 -0.273729 0.0728843 -0.314691 0.27739 -0.135527 0.149956 0.194129 -0.524801 0.756668 0.18162 -0.132504 0.244196 0.156094 0.13673 0.29382 0.238395 -0.841808 0.0194934 0.152894 -0.15592 0.249936 0.17484 -0.237571 0.422828 0.253839 0.158561 0.0064019 -0.174173 0.110609 -0.019645 -0.0144238 1.38202 0.200688 -0.00188556 -0.194791 -0.0395105 -0.120731 0.123865 0.0829535 0.0285899 0.0570411 -0.0190478 0.0206472 -0.0101489 -0.227115 -0.0102129 -0.0368818 0.0821313 -0.0570038 -0.0979769 -0.0635424 -0.170279 -0.0942877 0.00428259 0.125617 -0.130782 1.05723 -0.0682296 -0.197415 0.137157 0.16122
1 -0.0147193 0.0814508 -0.133433 -0.139719 -0.0299957 0.0142696 0.00483316 0.00591243 0.132686 0.0206291 0.0422241 -0.042281 0.0467085 0.0291207 0.0197649 0.00876811 0.102708 0.0603673 -0.0309466 0.0174025 -0.0279443 0.0617127 0.00771478 0.0222504 0.00779245 0.0308906 -0.000131456 -0.0456039 -0.147138 -0.173503 0.0329926 -0.144405 0.0516108 -0.0920422 -0.00263206 0.00345527 0.0641313 0.0558171 0.0325292 -0.0220284 -0.0544744 0.13962 0.122205 -0.581626 0.152751 -0.0186159 -0.122488 0.0266388 -0.0512703 0.0622133 0.159874 0.320171 0.0380907 0.00675027 0.102392 0.0236997 -0.00208737 0.0220974 0.539662 -1.05693 0.00526175 -0.0273015 -0.0596714 -0.19211 0.134445 0.134823 -0.257455 -0.299476 0.0576061 -0.222409 0.229088 -0.108563 0.15081 0.158276 -0.508769 0.772409 0.0853483 -0.0940513 0.213235 0.136811 0.111764 0.247325 0.287943 -0.877745 0.00220841 0.0428776 -0.0803519 0.135735 0.101823 -0.144476 0.34851 0.203082 0.172244 0.00757716 -0.174406 0.122496 0.00838546 0.00822964 1.19983 0.205646 -0.0121531 -0.038451 -0.0334117 -0.096847 0.0637183 0.0287372 0.0286214 0.0546119 0.00427929 0.0393988 0.0163813 -0.0978437 -0.0160845 -0.0118028 0.0510519 -0.0268716 -0.0844911 -0.0199597 -0.16565 -0.12095 0.00552315 0.155387 -0.163958 1.23386 -0.0592667 -0.147362 0.114727 0.127212
4 0.0457924 -0.0532585 -0.0689999 -0.0729951 0.0183342 0.0716897 0.183848 0.0686612 0.189353 -0.00217481 0.0554101 -0.177075 0.0105084 -0.0233401 0.0426563 0.0830482 0.0502239 0.0980217 0.0797096 -0.121345 -0.0327135 0.048309 -0.113468 0.119961 -0.104041 0.0182732 0.0347577 0.000823788 -0.0034813 0.0245951 -0.0146952 0.0112034 -0.0293448 -0.012646 0.174341 -0.0590446 0.0213643 0.00912454 0.0136604 -0.0178894 0.0336893 0.0315078 0.125472 -0.449049 -0.0809068 0.106631 0.0135775 -0.0911002 -0.0233448 -0.0714791 0.180428 0.397428 -0.00663699 0.0339756 0.0505847 -0.00960926 0.0300064 0.0233365 0.483113 -1.13826 0.0220037 -0.0456144 -0.020221 -0.231832 0.108459 0.0922635 -0.173382 -0.265463 0.0657516 -0.131702 0.118546 -0.0903066 0.0339687 0.0956383 -0.53347 0.733833 0.15371 -0.121857 0.256977 0.192515 0.150035 0.374477 0.213065 -0.855675 -0.0141878 0.17115 -0.0886195 0.199683 0.129705 -0.182091 0.407534 0.255806 0.13003 0.00797893 -0.190383 0.128715 0.0748405 0.107331 1.24809 0.19441 -0.0161742 -0.0920361 -0.0399145 -0.0683417 0.0994762 0.0944483 0.00441436 -0.00810902 -0.0711398 -0.024986 -0.00383968 -0.158845 0.0137063 -0.0252634 0.087857 -0.0769461 0.0678502 -0.0408642 -0.0210217 0.043343 0.00887869 -0.0528282 -0.11232 1.04885 -0.0404911 -0.297015 0.188329 0.259378
12 0.141198 -0.289122 -0.0915522 -0.107181 -0.0013565 -0.124952 -0.20341 -0.0759111 0.00892975 -0.00793511 0.0020577 0.257977 0.0870449 -0.018067 0.0266589 0.130201 0.154367 0.131753 -0.00564238 -0.117861 -0.118137 0.171033 -0.130371 0.164766 -0.159543 0.043624 0.105494 0.128082 -0.140371 -0.115611 -0.00716974 -0.105861 -0.0202471 -0.0916147 0.247053 -0.0544198 -0.0647036 0.00344827 0.00311357 0.00742854 -0.000682907 0.000908914 0.208597 -0.669365 -0.130742 0.115643 0.0591008 -0.0668711 -0.000906794 -0.111703 0.169638 0.447463 0.0475771 -0.0751219 0.0740433 0.0375004 0.1124 0.104878 0.505343 -1.19762 -0.00337815 -0.0463696 -0.0190455 -0.124818 0.0817992 0.0686563 -0.188639 -0.289061 0.0617387 -0.168143 0.240349 -0.13429 0.0991731 0.148374 -0.574242 0.766632 0.287155 -0.204721 0.396813 0.278667 0.256186 0.473307 0.219117 -0.786384 -0.00949442 0.220546 -0.171847 0.271686 0.16618 -0.229157 0.449115 0.253313 0.0161728 -0.0606254 -0.168118 0.0983153 -0.00570313 0.0214903 1.40876 0.203691 -0.000323495 -0.251695 -0.0548874 -0.112346 0.205239 0.108615 0.0448474 0.0533061 -0.109954 0.0360992 -0.029412 -0.260004 0.0165104 0.0437852 0.0701123 -0.0573296 -0.129629 -0.10637 -0.187914 -0.112598 0.0267743 0.172026 -0.14528 1.27073 -0.105942 -0.257874 0.205259 0.287991
29 -0.0250491 0.0423904 0.0279864 0.0302641 -0.0333935 0.0372147 0.0483167 0.0224315 -0.011351 0.0145373 0.00392113 -0.094574 -0.00120748 0.0249345 -0.00487286 -0.0745537 0.0133791 -0.0129254 0.0668501 -0.0177132 0.103635 -0.109433 0.0642848 -0.0794206 0.0562164 -0.0144219 0.00508396 0.030636 0.0967903 0.0843828 -0.000947614 0.0797283 -0.0102552 0.0129664 0.0421263 -0.0147463 0.0562682 0.035922 -0.0188528 -0.0158299 -0.0555214 0.0896326 0.124363 -0.513304 0.205116 -0.116924 -0.148776 0.0939346 -0.0354621 0.143498 0.173862 0.333974 0.0297111 -0.0865339 0.0798128 0.0549854 0.0658366 0.0942392 0.654997 -1.31794 0.0382485 0.000111104 -0.0470789 -0.256989 0.178314 0.172778 -0.257635 -0.321996 0.071638 -0.200793 0.214112 -0.121335 0.165281 0.174067 -0.534698 0.820542 0.142534 -0.120892 0.256089 0.17641 0.112258 0.310852 0.269408 -0.837439 -0.00909885 0.128441 -0.107862 0.188381 0.147604 -0.226438 0.36905 0.216359 0.293948 0.0415281 -0.251889 0.181378 0.0120307 0.0303178 1.28465 0.217116 0.0106458 -0.0873513 -0.04609 -0.119066 0.0990676 0.0676198 0.0239865 0.0581925 -0.0912641 0.0170453 0.00599164 -0.261202 -0.0404821 -0.0366454 0.0447793 -0.0459364 -0.0881935 -0.0138193 -0.145434 -0.123398 0.0248305 0.150629 -0.142172 1.02403 0.0002884 0.0705405 -0.00365876 -0.00802169
9 0.0317781 -0.0563026 0.0281782 -0.00704689 -0.00724411 0.0119028 0.00673837 0.0133858 0.000754628 -0.00985857 -0.013851 0.0247097 0.0375628 0.0227885 0.0476391 0.0554053 0.1328 0.109111 0.084401 -0.1234 0.0310589 0.00351538 0.00241817 -0.000393595 0.0111378 -0.00381311 0.0498425 0.105385 0.0477579 0.0530407 -0.029306 0.0908998 -0.0564274 0.0242143 0.189183 -0.0439959 -0.0437927 0.00192525 0.0042082 0.019487 -0.00441809 -0.0246514 0.186138 -0.623335 -0.0865067 0.0283344 0.0438092 0.0556654 0.0284747 0.00246017 0.14687 0.39703 0.0695355 -0.120507 0.000923152 0.0702642 0.170246 0.200504 0.518493 -1.18833 0.0100056 0.0166857 0.00856214 -0.05998 0.0563253 0.0604536 -0.197455 -0.284441 0.136123 -0.259127 0.318397 -0.211297 0.152369 0.236043 -0.573602 0.696003 0.187453 -0.167499 0.155438 0.145894 0.0350549 0.287731 0.204598 -0.795848 -0.0202149 0.150448 -0.0659702 0.209949 0.172087 -0.178851 0.400299 0.266171 0.183097 0.0234344 -0.175108 0.101661 0.0768218 0.120022 1.14443 0.205189 -0.0939724 -0.153383 -0.101766 -0.150626 0.170163 0.189418 0.0788336 -0.0149567 -0.0406427 -0.0429659 0.0240709 -0.367921 -0.0299431 -0.189715 0.118735 -0.0646654 -0.0471065 -0.102439 -0.146757 -0.0678627 -0.0307366 0.0492138 -0.105145 1.15268 0.0284573 -0.137083 0.229794 0.236732
33 0.0304279 -0.0787637 0.0457209 0.0298452 -0.000825661 -0.00231309 0.011369 0.0175047 -0.0384298 -0.00349498 -0.0206101 0.0242152 0.0160139 0.00388621 0.0109446 0.0184872 0.0614048 0.0474512 0.0960969 -0.116717 -0.000330909 0.0304795 -0.0471524 0.0277274 -0.0305764 -0.0142316 0.00305217 -0.00341609 -0.0222728 -0.0221374 0.00578133 0.0128976 0.0205028 0.0223293 0.104894 -0.0331226 -0.00714461 0.00355794 -0.0396766 0.0122576 -0.0149624 -0.0312474 0.162273 -0.435059 -0.0284087 0.00157428 0.00714686 0.0390709 0.0156901 0.00676466 0.14481 0.354428 0.0271915 -0.0843845 0.0265219 0.0474069 0.125781 0.141119 0.525119 -1.21481 0.0240509 0.00451245 0.000406486 -0.152489 0.0911151 0.0871349 -0.155448 -0.267831 0.0966904 -0.153476 0.207623 -0.151745 0.096832 0.156284 -0.563656 0.675638 0.190971 -0.149925 0.152123 0.141414 0.0358204 0.277607 0.190847 -0.792737 -0.0234956 0.25711 -0.116777 0.304904 0.221842 -0.27017 0.438437 0.281154 0.199291 0.0383697 -0.201254 0.130001 0.0622395 0.104521 1.20152 0.208868 -0.0550976 -0.169113 -0.0727717 -0.116865 0.161373 0.166771 0.0430461 -0.00957152 -0.0214156 -0.0239655 0.00748604 -0.22303 -0.0149288 -0.0891979 0.101423 -0.0668305 -0.0117968 -0.0824047 -0.103343 -0.0301419 -0.00853236 0.0362119 -0.100229 0.99687 0.0523191 0.02991 0.0717427 0.0589206
32 0.0448947 -0.12275 0.0241991 -0.0105762 -0.0239555 -0.064131 -0.123943 -0.0154585 -0.075172 -0.00256135 -0.0327567 0.133459 0.0764059 0.030612 0.0174533 0.037889 0.191331 0.106785 0.112588 -0.18489 -0.0253066 0.113231 -0.0315236 0.033037 -0.0240141 -0.0152265 0.0406905 0.0782873 -0.103786 -0.130095 0.0206101 -0.0470253 0.073869 -0.00954249 0.10618 -0.0220194 -0.0477237 0.0131893 -0.0376018 0.0279998 -0.0607072 -0.0173713 0.164008 -0.4351 -0.00278507 -0.0413038 0.0173065 0.0873848 0.0355744 -0.00724792 0.160734 0.412404 0.0643304 -0.143849 0.0223968 0.0717538 0.144842 0.161 0.553967 -1.23755 0.0120098 0.0152712 -0.00435046 -0.092604 0.0871412 0.0941619 -0.185789 -0.273502 0.0707071 -0.0929599 0.215081 -0.12316 0.113791 0.142072 -0.546737 0.684766 0.242155 -0.198553 0.23172 0.190774 0.0989226 0.34519 0.222438 -0.759434 -0.0217888 0.215658 -0.146931 0.283873 0.200638 -0.254742 0.41714 0.243852 0.181225 0.00318036 -0.205775 0.126261 0.0276226 0.0652493 1.24496 0.214782 -0.0426312 -0.194166 -0.0810295 -0.141588 0.189486 0.144124 0.0533548 0.0430962 -0.0713883 0.0282285 0.000956913 -0.22947 -0.0153951 -0.0277664 0.0500648 -0.0368387 -0.13834 -0.097827 -0.196747 -0.130303 0.00834219 0.178439 -0.130923 1.11187 -0.00406748 0.0121521 0.0952809 0.104402
31 -0.0188173 -0.00745605 0.065508 0.0634744 -0.0244376 -0.0134168 -0.0340362 0.0217954 -0.115905 0.00934116 -0.0390424 0.0197953 0.0154855 0.0227465 -0.0119325 -0.0441931 0.081484 0.0233784 0.17619 -0.18098 0.0287745 0.0559774 -0.0449739 0.00913002 -0.00414131 -0.0447099 -0.0239711 -0.0560114 -0.0711279 -0.110347 0.0406251 -0.0453302 0.134213 0.0318089 0.0646074 -0.0246398 0.00711779 0.0342456 -0.0862667 0.0219037 -0.0967003 0.00748759 0.117909 -0.219861 0.133696 -0.117854 -0.0690357 0.133179 0.0207767 0.0761389 0.185406 0.439234 0.0515752 -0.19136 0.0940738 0.0864407 0.18943 0.206533 0.568657 -1.26802 0.0414456 -0.0160309 -0.0397273 -0.309119 0.187186 0.196457 -0.194481 -0.305432 0.0891273 -0.105174 0.21952 -0.147858 0.11035 0.149226 -0.601651 0.746301 0.255417 -0.209375 0.209639 0.190947 0.0800746 0.357343 0.243577 -0.871574 -0.0191421 0.293703 -0.170556 0.358367 0.240087 -0.336143 0.399415 0.236113 0.422877 0.0605116 -0.316634 0.222453 0.0443227 0.0882111 1.1979 0.220753 -0.0250042 -0.166823 -0.0596553 -0.122577 0.127979 0.113641 0.027204 0.0179145 -0.0426313 0.0134366 0.00885516 -0.160955 -0.0156469 -0.0313574 0.052894 -0.041661 -0.0802973 -0.0875818 -0.159127 -0.0794543 0.00590741 0.140405 -0.114503 0.998529 -0.0523288 -0.172035 0.0741906 0.0819713
24 -0.0202482 0.0477783 0.0494254 0.0484885 0.00362422 0.0259484 0.0324625 0.0208287 -0.063846 -0.00722529 -0.0357108 -0.0104242 -0.00879837 0.0142015 -0.00243328 -0.0310178 -0.0185779 -0.0143469 0.0410917 -0.0127741 0.0355625 -0.00636031 -0.062572 0.0265636 -0.00966913 -0.0209713 -0.0650339 -0.122856 -0.113828 -0.132677 0.0308893 -0.0260232 0.0760449 0.0411913 -0.0156867 0.00238898 0.0609179 0.0221312 -0.0937406 0.0280163 -0.0578713 0.0328869 0.174112 -0.380835 -0.12314 0.043821 0.0810748 0.0410457 0.0519797 -0.018454 0.159456 0.4255 0.0385353 -0.103961 -0.0337443 0.0628445 0.160489 0.184711 0.611236 -1.4419 0.0256683 0.0430734 0.0326984 -0.0927877 0.0661402 0.0697691 -0.159796 -0.29707 0.139286 -0.192551 0.24622 -0.196501 0.115145 0.195308 -0.687846 0.767602 0.232334 -0.174187 0.152502 0.153373 0.00324938 0.318873 0.217747 -0.967426 -0.0397505 0.331779 -0.0953802 0.368846 0.291537 -0.315054 0.51947 0.352993 0.22742 0.0678819 -0.197298 0.130645 0.0899044 0.138654 1.16475 0.214344 -0.102508 -0.169106 -0.0993734 -0.135975 0.193465 0.232719 0.0610841 -0.0444222 0.0149882 -0.0441506 0.0122419 -0.195488 -0.016831 -0.126885 0.123687 -0.0692971 0.00380023 -0.0760842 -0.0910543 -0.0183702 -0.0204358 -0.000815876 -0.0953869 1.00447 0.0794904 0.0742462 0.0826018 0.0614895
28 -0.0843691 0.162837 0.180315 0.157768 0.0372622 0.0760617 0.0772215 0.0781266 -0.0805133 5.50539e-05 -0.0461181 -0.0332484 -0.0421407 0.0110217 -0.0255402 -0.0624896 -0.0615478 -0.0742135 -0.0331275 0.098397 -0.0303072 0.0759968 -0.0513807 0.00427386 0.0472483 -0.0399156 -0.0204899 -0.0460852 0.0192027 -0.0362392 0.00448914 0.0255144 0.0417644 0.0989038 0.229488 -0.0515433 -0.109101 -0.0465891 0.0470381 0.0327315 0.0385928 -0.242423 0.149496 -0.484624 -0.189878 0.0486858 0.125635 0.0767211 0.0739082 -0.0956863 0.188868 0.437194 0.0356687 -0.0693578 0.0125264 0.0405747 0.159628 0.167709 0.552197 -1.24283 0.0167103 0.00209346 -0.00308268 -0.151492 0.10531 0.157056 -0.213025 -0.31611 0.118133 -0.222317 0.256023 -0.142147 0.0841351 0.155771 -0.640898 0.750477 0.282328 -0.205058 0.116579 0.12122 -0.0263029 0.283022 0.254234 -0.978338 -0.00643305 0.162148 -0.130454 0.326784 0.242903 -0.255612 0.487267 0.31493 0.285432 0.078476 -0.223028 0.14657 0.0457542 0.0843747 1.28415 0.221632 -0.0686641 -0.149246 -0.0627221 -0.0926245 0.0707343 0.116196 0.00791433 0.0111493 0.146373 -0.00487369 0.0317974 0.0371461 -0.0236595 -0.115778 0.105945 -0.0726348 -0.00527004 -0.0887169 -0.113018 -0.00749189 -0.0412715 0.0355915 -0.131408 1.07242 0.00988993 -0.103404 0.141218 0.129555
10 -0.100013 0.164168 0.186888 0.165823 0.0233416 0.146446 0.259008 0.113436 0.0316322 -0.0132005 0.0018786 -0.301028 -0.0269125 0.0107878 0.042812 0.0378608 0.0321289 0.0586966 0.143827 -0.138922 0.0372108 -0.086018 0.0673098 -0.0792851 0.076305 -0.0176393 0.00412343 0.0675045 0.106534 0.10137 -0.0123278 0.0828185 -0.0240002 0.0670878 0.190848 -0.0550684 -0.101299 -0.0707442 0.0415154 0.0187022 0.0632612 -0.180468 0.157419 -0.499998 -0.0147048 -0.0714255 0.0177228 0.0949759 0.0431287 0.0880737 0.225287 0.500118 0.0311858 -0.167987 -0.00925333 0.0934128 0.230632 0.236716 0.607345 -1.38042 0.0384459 0.0241439 0.00791966 -0.105268 0.0770616 0.0955406 -0.184565 -0.274701 0.130347 -0.22596 0.225741 -0.181874 0.104575 0.201172 -0.639509 0.75264 0.154204 -0.10382 0.116955 0.10571 0.0125168 0.214428 0.21348 -0.913807 -0.01206 0.21206 -0.095868 0.251728 0.196606 -0.238771 0.457077 0.302297 0.156455 0.0566233 -0.127776 0.0886544 0.0379332 0.0644518 1.171 0.183923 -0.0405857 -0.145135 -0.0640788 -0.102327 0.132439 0.170167 0.0162067 -0.0200514 -0.00712555 -0.0442688 0.00606065 -0.213879 -0.0199375 -0.122605 0.100962 -0.0729894 -0.0218963 -0.0651934 -0.112471 -0.0390684 0.00408428 0.0338229 -0.123593 1.03467 0.00318952 -0.115185 0.0968352 0.119816
18 0.0852565 -0.192734 -0.0148197 -0.0216722 -0.00431063 -0.0456871 -0.0506256 -0.0100927 0.00164743 0.00111499 0.00777859 0.0670476 0.0468945 -0.0169902 0.0157933 0.0711685 0.117667 0.101288 0.125383 -0.198895 -0.0618816 0.103773 -0.118098 0.115753 -0.12362 0.0172573 0.0431354 0.00533975 -0.0922022 -0.0703215 0.0119637 -0.0918958 0.0229365 -0.05247 0.114118 -0.0413576 -0.0360193 0.00900772 -0.0147446 -0.00470564 -0.0134572 0.028215 0.138192 -0.433851 0.0161416 0.036556 -0.0305669 -0.048493 -0.0246365 -0.0331136 0.148878 0.353194 0.02977 -0.0973894 0.133304 0.0336492 0.108809 0.0973686 0.467479 -1.08383 0.0246962 -0.0806917 -0.068041 -0.337979 0.187749 0.164084 -0.192502 -0.284881 0.0544706 -0.172865 0.211014 -0.123812 0.101051 0.141463 -0.541221 0.773605 0.299545 -0.216959 0.407146 0.284096 0.257543 0.495071 0.232266 -0.834112 0.00524517 0.284075 -0.211454 0.327214 0.191628 -0.314416 0.413639 0.230454 0.21273 -0.0152776 -0.251169 0.166377 0.00286014 0.0277562 1.33866 0.202607 0.0257347 -0.217815 -0.0263056 -0.101188 0.146492 0.0715262 0.0190011 0.052011 -0.113299 0.0324714 -0.0271486 -0.172705 0.0196691 0.0698346 0.0502203 -0.0523581 -0.078381 -0.0676972 -0.113733 -0.0550557 0.0304021 0.123376 -0.11559 0.980878 -0.106818 -0.271587 0.119664 0.173867
26 0.0415738 -0.079135 0.00173558 0.00195534 -0.0041532 -0.0960784 -0.205038 -0.045286 -0.0813497 0.0116192 -0.027069 0.228993 0.00824492 -0.00195884 -0.0518407 -0.0547348 -0.0466265 -0.0837497 -0.153655 0.176019 -0.0752042 0.129647 -0.0948531 0.072404 -0.0450998 -0.0212478 0.0561479 0.0712699 -0.0447078 -0.0849398 0.00922871 -0.0488915 0.0312197 -0.0013251 0.269533 -0.0562323 -0.0271072 0.0260089 0.0218976 0.000874061 -0.0290984 -0.0593953 0.190391 -0.635666 0.0212139 -0.0345419 -0.0131991 0.0720442 0.00973179 -0.0566836 0.21437 0.464957 0.0319235 -0.0686118 0.108523 0.052206 0.137138 0.14279 0.625305 -1.34005 0.00651741 -0.0233228 -0.0326152 -0.214587 0.148934 0.17694 -0.248693 -0.351734 0.0418682 -0.126379 0.214539 -0.0863084 0.0845844 0.0947297 -0.572894 0.773126 0.300078 -0.21942 0.327504 0.239511 0.159405 0.414149 0.265792 -0.853665 -0.0159897 0.195683 -0.200262 0.345073 0.228837 -0.291917 0.449431 0.25372 0.212357 0.00707851 -0.240099 0.164749 -0.00304919 0.0243045 1.44576 0.236495 0.0020486 -0.15937 -0.041824 -0.091115 0.0968428 0.0471269 0.00117967 0.0729872 0.0305431 0.0634872 0.00175989 0.0508659 -0.00548336 0.0521322 0.0483521 -0.0562644 -0.108103 -0.0785086 -0.181347 -0.0993022 0.00535932 0.187036 -0.166102 1.2124 -0.0590463 -0.0484939 0.0847133 0.121647
25 -0.00325094 0.0170801 0.00220761 0.0111414 -0.021678 -0.0590593 -0.160568 -0.0389551 -0.0860006 0.0140676 -0.0246504 0.146222 0.0120927 0.0106066 -0.045211 -0.0826326 -0.0536652 -0.0970378 -0.13403 0.178598 -0.0299086 0.049348 -0.0150984 -0.00427437 0.00441914 -0.0122264 0.00802238 0.0248348 -0.0648554 -0.117188 0.0288469 -0.0654756 0.0590478 -0.00535545 0.0822247 -0.00973556 0.0333607 0.0399657 -0.0316512 0.00142116 -0.0730327 0.0339026 0.174626 -0.601208 0.0847667 -0.0838808 -0.0527241 0.105837 0.00847519 0.0317336 0.178449 0.369474 0.0229235 -0.0480883 0.0476724 0.0494144 0.0835267 0.0966647 0.639518 -1.32005 0.00702363 0.01378 -0.0187701 -0.107828 0.0997754 0.115428 -0.23898 -0.332382 0.0600494 -0.135042 0.21755 -0.112042 0.12197 0.123974 -0.553545 0.736305 0.265967 -0.192292 0.277217 0.207671 0.106642 0.348354 0.276513 -0.879227 -0.0247946 0.180397 -0.146138 0.299039 0.227177 -0.273714 0.447735 0.264438 0.329455 0.0488741 -0.300198 0.219109 0.00620531 0.0360433 1.46832 0.248441 -0.017159 -0.201236 -0.0731657 -0.137239 0.154388 0.119732 0.00907309 0.0640505 0.0111004 0.0502275 0.0050999 -0.0456263 -0.027134 0.00626053 0.0563527 -0.0523406 -0.111483 -0.0552176 -0.197102 -0.134326 0.0100512 0.190381 -0.16128 1.16461 0.000605687 0.10112 0.0372939 0.038587
13 0.00553235 0.0406358 -0.0436089 -0.0858611 0.0147501 -0.000266768 -0.0306302 -0.0159644 0.133763 -0.012362 0.0430252 0.0312951 0.0934207 -0.00642597 0.050682 0.194556 0.161129 0.142311 -0.146295 0.0323141 -0.168367 0.127851 0.0172659 0.0552428 -0.0457584 0.0919117 0.12351 0.262649 -0.0791397 -0.0621315 -0.0251113 -0.0963986 -0.101993 -0.114794 0.221053 -0.0336906 -0.110164 -0.0412405 0.118699 -0.0138912 0.07651 -0.0896861 0.21106 -0.848082 -0.0704794 0.0336497 0.0299197 -0.0172681 -0.00617671 -0.0275972 0.211626 0.478324 0.0371444 -0.0816405 0.04006 0.0677398 0.142085 0.12138 0.510967 -1.10491 -0.00927693 -0.00351791 -0.00382592 0.0417434 0.0163879 0.031024 -0.184842 -0.215939 0.0316214 -0.18079 0.180015 -0.0886583 0.0978215 0.130735 -0.431247 0.56311 0.202108 -0.107419 0.300224 0.184235 0.20581 0.299187 0.204656 -0.700013 -0.0108361 0.178316 -0.151077 0.233872 0.174894 -0.218052 0.428341 0.248396 0.0364527 -0.0286077 -0.151578 0.102516 -0.0456536 -0.0307723 1.33629 0.1707 0.0104127 -0.295457 -0.0620842 -0.134237 0.229458 0.147377 0.0225087 0.0702379 -0.12428 0.0293667 -0.0453684 -0.384103 -0.011678 -0.0101011 0.063646 -0.0606588 -0.1885 -0.0968199 -0.278374 -0.196634 0.0410692 0.234738 -0.165917 1.24382 -0.0744719 -0.107962 0.156497 0.237302
5 0.0349276 -0.0592192 -0.116093 -0.149625 -0.0258281 -0.066771 -0.17733 -0.038005 -0.040499 0.00956101 -0.0304228 0.211929 0.100844 0.0565596 0.043779 0.057408 0.282267 0.176518 0.127221 -0.222511 -0.0390291 0.211091 -0.0810395 0.086862 -0.0354141 -0.00836496 0.0740458 0.0919905 -0.299096 -0.3422 0.0481954 -0.185366 0.132251 -0.0747878 0.230819 -0.0499528 -0.0669663 0.0283015 0.0203245 0.0211552 -0.0675599 0.03576 0.192514 -0.742729 -0.0953159 0.127213 0.0274935 -0.00974566 -0.00536784 -0.102053 0.178463 0.451173 0.0863257 -0.013264 0.0666998 0.0251849 -0.000161385 0.0267027 0.548145 -1.16556 -0.0238273 -0.0248002 -0.0342382 -0.0976816 0.0902793 0.0857046 -0.292736 -0.365563 0.0733084 -0.260373 0.344119 -0.145855 0.177836 0.201075 -0.643408 0.928185 0.177477 -0.17621 0.307164 0.20218 0.181769 0.377673 0.324893 -0.957722 0.0122498 0.0318749 -0.134971 0.191508 0.130506 -0.162925 0.428914 0.235453 -0.0483293 -0.0792198 -0.116577 0.0488326 -0.00695957 -0.00415735 1.56714 0.254692 -0.0266792 -0.0943039 -0.0444364 -0.125036 0.0949316 0.00678823 0.0701933 0.0975207 0.0646997 0.0791993 0.0255079 -0.0419363 0.00416566 0.0124144 0.0513177 -0.0192792 -0.143691 -0.0577655 -0.218249 -0.154068 -0.0166893 0.214877 -0.182136 1.5086 -0.0491282 -0.0832125 0.200043 0.203745
7 0.0737297 -0.144874 -0.0703928 -0.0909124 -0.0115472 -0.0533784 -0.110562 -0.031367 0.00190166 -0.00369918 -0.0109018 0.136607 0.0740819 0.016607 0.0379569 0.0826065 0.179377 0.136589 0.0839223 -0.167996 -0.0475358 0.128464 -0.0874982 0.105704 -0.0809174 0.0228925 0.0721985 0.0744735 -0.196226 -0.196454 0.0180031 -0.125708 0.040175 -0.0839393 0.178732 -0.0382787 -0.0332401 0.0185323 0.00377986 0.00632882 -0.0364538 0.0571475 0.197191 -0.708064 -0.104924 0.129582 0.0318709 -0.0497136 -0.0118574 -0.0929287 0.175943 0.445664 0.0576535 0.000371522 0.0537179 0.0134036 0.012396 0.0271115 0.547188 -1.21408 -0.0125344 -0.0322549 -0.0256105 -0.114858 0.0758074 0.0601462 -0.242331 -0.331595 0.0603909 -0.202664 0.262853 -0.123691 0.134178 0.158963 -0.611866 0.868331 0.195653 -0.173573 0.336943 0.232303 0.196324 0.414321 0.278876 -0.909965 0.00142257 0.106123 -0.13529 0.218002 0.140545 -0.182614 0.44697 0.256733 -0.0318088 -0.0647185 -0.13904 0.0655551 0.0146183 0.027831 1.52518 0.238563 -0.0209736 -0.150633 -0.055926 -0.12353 0.163624 0.0862752 0.0600156 0.0671173 -0.0189089 0.0497044 0.00511128 -0.147432 0.0103174 0.0194718 0.0646356 -0.0390714 -0.110949 -0.0744743 -0.186989 -0.116356 0.00289155 0.155883 -0.167305 1.41988 -0.0428252 -0.108932 0.181816 0.215723
6 0.0335396 -0.0646342 -0.0995622 -0.133574 -0.0295199 -0.0336715 -0.11162 -0.0120807 -0.0265293 0.0110637 -0.027386 0.140652 0.0990128 0.0605586 0.0510788 0.0455629 0.281405 0.184004 0.203992 -0.292121 -0.0104068 0.19395 -0.115149 0.105232 -0.0550394 -0.0240988 0.0465119 0.0141293 -0.305758 -0.348411 0.0551134 -0.175242 0.157109 -0.0632762 0.163988 -0.0375722 -0.0144603 0.0478182 -0.0251703 0.0179898 -0.0947581 0.0937578 0.183965 -0.694621 -0.0777971 0.139695 0.00941489 -0.0289192 -0.0160811 -0.0948975 0.173017 0.418872 0.0732881 0.0285231 0.0638857 0.000149871 -0.0467651 -0.0129748 0.55811 -1.18809 -0.0117687 -0.0278254 -0.037678 -0.145247 0.0986325 0.0786894 -0.280899 -0.361301 0.065 -0.219861 0.292839 -0.12304 0.156429 0.174945 -0.602886 0.904587 0.130076 -0.155249 0.276566 0.188691 0.155715 0.354651 0.315505 -0.937719 0.014213 0.00555714 -0.100145 0.145018 0.0921126 -0.118752 0.394356 0.21672 -0.0204112 -0.0675735 -0.123316 0.0513072 0.0227394 0.0258782 1.49463 0.254923 -0.0349577 -0.0662918 -0.0431708 -0.12408 0.0945684 0.0193108 0.0717791 0.0849249 0.0598562 0.0698737 0.0328067 -0.0433236 0.00872895 0.0107235 0.0580217 -0.0200151 -0.105145 -0.0514633 -0.18523 -0.125211 -0.0140546 0.171077 -0.172158 1.47583 -0.0338782 -0.0812629 0.175894 0.172012
30 -0.0555815 0.058735 0.156532 0.136472 0.0169412 0.0229558 0.0209227 0.0479496 -0.151335 -0.0119868 -0.0732183 0.0157117 -0.0129706 0.023169 -0.00469135 -0.0166587 0.0442016 0.0141897 0.138758 -0.149306 -0.00159927 0.0699254 -0.0736639 0.0281703 0.00812838 -0.0567998 -0.0438218 -0.081595 -0.130318 -0.175207 0.0390866 -0.0629573 0.143199 0.0716356 0.119502 -0.0292839 -0.0589671 -0.0214811 -0.0787262 0.0595817 -0.0388972 -0.160437 0.158708 -0.239017 -0.197475 0.0458376 0.147067 0.0649122 0.0911374 -0.0856365 0.187236 0.494898 0.0479988 -0.153392 -0.0343111 0.0806388 0.229662 0.244799 0.574785 -1.41123 0.0259533 0.0409029 0.0373695 -0.0917479 0.0651851 0.099009 -0.154018 -0.30091 0.116231 -0.0899028 0.210699 -0.157418 0.0567767 0.136336 -0.667506 0.684312 0.219401 -0.169681 0.0899965 0.118222 -0.0160817 0.262019 0.206537 -0.885323 -0.0343164 0.294361 -0.122366 0.381117 0.279049 -0.295232 0.48357 0.316085 0.165836 0.0464562 -0.148648 0.0863577 0.0749598 0.120227 1.11239 0.202637 -0.0898263 -0.155235 -0.081263 -0.104257 0.141909 0.174035 0.0422646 -0.0287244 0.0520472 -0.012378 0.0158385 -0.0793244 -0.00590492 -0.0893133 0.0990792 -0.0610054 -0.0318469 -0.106542 -0.128761 -0.030936 -0.017598 0.0607493 -0.122526 1.1278 -0.00453594 -0.122933 0.138493 0.147401
27 -0.104831 0.155593 0.152592 0.155224 0.0420502 0.0534301 0.0903491 0.0271681 -0.0929674 -0.0197274 -0.0465122 -0.108877 -0.0356618 0.000787421 0.0102809 0.0267544 -0.00536484 0.0256556 0.135639 -0.141352 -0.00605954 -0.045063 0.000637377 -0.0296665 0.0235197 -0.0221855 -0.121143 -0.183674 -0.265609 -0.289772 0.0710177 -0.168601 0.16767 0.0275734 -0.0596719 0.00237713 -0.0103228 -0.0517147 -0.0971904 0.0548872 0.00970761 -0.155529 0.207915 -0.283307 -0.15169 0.000612164 0.125802 0.0591068 0.0881025 0.0477472 0.223013 0.565431 0.0284218 -0.217204 -0.0846667 0.121994 0.27543 0.289034 0.630082 -1.59645 0.0395143 0.0798834 0.076088 -0.0156352 0.0162528 0.0217532 -0.0817409 -0.260256 0.157259 -0.167217 0.217951 -0.228953 0.0738072 0.197547 -0.755606 0.68003 0.253024 -0.141484 0.0958996 0.109354 -0.0383887 0.249253 0.172405 -1.03552 -0.0516976 0.540566 -0.116722 0.533605 0.402906 -0.433204 0.603563 0.430636 0.167908 0.0967862 -0.137637 0.0937883 0.0844738 0.140364 1.03464 0.17911 -0.108526 -0.303567 -0.115748 -0.153041 0.292252 0.350567 0.0529974 -0.0921161 0.0141141 -0.0581474 -0.0129406 -0.284712 -0.00944905 -0.120499 0.148603 -0.0796249 -0.0346813 -0.117296 -0.162228 -0.0512239 0.0236463 0.0513079 -0.115917 1.08926 0.0166815 -0.106847 0.100132 0.115844
16 0.00287332 -0.0785425 0.0815162 0.0793665 -0.0411456 -0.0251418 -0.0480276 0.0218356 -0.173927 -0.00153073 -0.0690162 0.058867 0.0211013 0.037635 -0.000107493 -0.058764 0.108117 0.0359435 0.232917 -0.245467 0.0858635 0.00104532 -0.0134282 -0.0173925 0.0147853 -0.0588648 0.0128543 0.0731699 0.0218959 -0.0136887 0.0151031 0.0877705 0.116294 0.0840121 0.163728 -0.042987 -0.0222359 0.0184226 -0.11777 0.0532781 -0.100031 -0.0794115 0.175519 -0.326855 0.00590057 -0.0811618 0.0226164 0.147008 0.0631536 0.0393736 0.186932 0.498271 0.0532619 -0.129923 -0.075171 0.0701916 0.132773 0.164128 0.610294 -1.42025 0.0322601 0.0788465 0.0500716 -0.0363364 0.0429151 0.0485883 -0.16886 -0.316278 0.127412 0.0114376 0.199552 -0.17181 0.0882367 0.150636 -0.677839 0.720722 0.249052 -0.223005 0.119352 0.165236 -0.0308438 0.303073 0.222067 -0.821448 -0.0648412 0.24021 -0.0571561 0.265423 0.214136 -0.224961 0.430395 0.280914 0.371969 0.0644489 -0.29345 0.196736 0.119846 0.191785 1.2124 0.251245 -0.125018 -0.162289 -0.136386 -0.17271 0.229844 0.261411 0.0735425 -0.0281206 -0.07491 -0.0415971 0.0294413 -0.345954 -0.0409642 -0.169097 0.0923627 -0.0551754 -0.0593888 -0.129347 -0.186986 -0.100038 -0.0182154 0.1067 -0.126989 1.27403 0.0899031 0.0929105 0.11126 0.0862493
11 0.0713652 -0.15058 -0.0885032 -0.117414 -0.0209133 -0.0931728 -0.192847 -0.0510078 -0.0433733 0.00237716 -0.0274086 0.235281 0.0916024 0.0326033 0.0309402 0.0659306 0.23078 0.145816 0.0972975 -0.192729 -0.0616182 0.204451 -0.120126 0.12751 -0.087611 -0.00207383 0.0762687 0.0696601 -0.264956 -0.29184 0.0353081 -0.167198 0.105407 -0.07727 0.239309 -0.0550929 -0.0662943 0.0271996 -0.0040494 0.0190872 -0.0630646 0.0206432 0.197554 -0.693729 -0.108913 0.135257 0.0364103 -0.0320371 -0.000215763 -0.115268 0.175728 0.443619 0.0717715 -0.0276841 0.0790759 0.025545 0.0277041 0.0477599 0.523007 -1.15522 -0.0177676 -0.0412219 -0.0376241 -0.127973 0.0947237 0.0837656 -0.252768 -0.342842 0.0637173 -0.212115 0.297776 -0.132673 0.142471 0.169729 -0.619506 0.882286 0.213568 -0.195856 0.331776 0.226288 0.194515 0.40545 0.290059 -0.89635 0.0100109 0.0850681 -0.152137 0.219157 0.134497 -0.183095 0.427041 0.236703 -0.0437481 -0.0791836 -0.120189 0.0479677 -0.00810914 -0.00140884 1.50076 0.24163 -0.0194817 -0.118068 -0.0411405 -0.113514 0.112123 0.0190232 0.061222 0.0870969 0.0298222 0.0750839 0.0149583 -0.0509034 0.0146971 0.0463456 0.055075 -0.0252256 -0.124798 -0.0599266 -0.182394 -0.117826 -0.00495683 0.189185 -0.158854 1.36768 -0.0765035 -0.145384 0.179116 0.196277
21 -0.046704 0.0345666 0.120841 0.106157 -0.0271246 0.0345793 0.047152 0.0493419 -0.149488 -0.00572858 -0.06628 -0.0423611 0.00238863 0.0445627 0.00264167 -0.0715564 0.0814851 0.0290725 0.220832 -0.211112 0.116679 -0.0641082 0.0336312 -0.0654699 0.0654 -0.0579728 -0.0335355 0.00686922 -0.0051906 -0.0375236 0.0189994 0.0740583 0.0907029 0.0795305 0.0662749 -0.0206253 -0.015964 -0.00376208 -0.0976148 0.0462242 -0.0741545 -0.0517703 0.169348 -0.345978 -0.0238275 -0.0708964 0.040738 0.144299 0.0715165 0.0685684 0.18412 0.484581 0.0609321 -0.146965 -0.0885929 0.0800636 0.154024 0.191619 0.635235 -1.46886 0.0299247 0.0893077 0.060584 -0.000991414 0.0287953 0.0341997 -0.159991 -0.292568 0.144019 -0.0851609 0.22469 -0.189972 0.114835 0.183733 -0.707208 0.75102 0.241285 -0.20896 0.0970138 0.139338 -0.0610499 0.287639 0.230328 -0.911432 -0.0573341 0.285912 -0.0556327 0.307724 0.25669 -0.267656 0.494807 0.335434 0.346188 0.0865356 -0.261347 0.175463 0.11885 0.187265 1.18245 0.238677 -0.137279 -0.194122 -0.148684 -0.196135 0.268884 0.311859 0.0881831 -0.0473314 -0.0567526 -0.0629 0.0314143 -0.433414 -0.056175 -0.219595 0.12191 -0.0640432 -0.0620281 -0.134393 -0.210661 -0.106713 -0.0224512 0.0906423 -0.12729 1.30723 0.111158 0.0961155 0.116181 0.0784954
19 -0.0185312 -0.0351972 0.101509 0.0811609 -0.0352714 -0.0114757 -0.0345064 0.0360942 -0.172949 -0.00286121 -0.0740336 0.0445697 0.0460595 0.0549011 0.0231954 -0.0215819 0.198489 0.107189 0.281627 -0.322302 0.0544661 0.072136 -0.0426278 0.00841816 0.0105049 -0.0620669 0.019954 0.0714334 -0.04161 -0.0908178 0.0203291 0.0401439 0.131484 0.0683285 0.188697 -0.0487231 -0.0522853 0.0064724 -0.0847147 0.0525575 -0.094368 -0.0962618 0.186937 -0.390717 -0.0117918 -0.0700994 0.0323714 0.146512 0.068121 0.0205649 0.209354 0.537869 0.0701141 -0.165229 -0.0290131 0.0849288 0.165123 0.199904 0.632651 -1.44915 0.0278676 0.0557391 0.0279442 -0.0780722 0.0648415 0.0833333 -0.184329 -0.316079 0.105676 -0.0157375 0.208182 -0.152424 0.0919554 0.137162 -0.60566 0.66363 0.203826 -0.188379 0.0910748 0.129613 -0.0247729 0.2469 0.218366 -0.78181 -0.0413573 0.194723 -0.0784496 0.256283 0.194164 -0.212716 0.411414 0.263933 0.275918 0.0434611 -0.228755 0.143365 0.0898518 0.149072 1.15021 0.23161 -0.0984518 -0.124642 -0.107835 -0.141362 0.173517 0.186264 0.0622052 -0.00770836 -0.0256247 -0.0198097 0.0311433 -0.264868 -0.0341671 -0.139742 0.0847877 -0.0482325 -0.0894833 -0.13763 -0.219651 -0.116945 -0.0174944 0.132265 -0.129266 1.2785 0.0451933 -0.0146383 0.1535 0.146969
22 0.078168 -0.159833 -0.0749988 -0.0863166 -0.00597432 -0.0461466 -0.0533717 -0.0139414 0.0245328 0.00574033 0.00532799 0.0777091 0.0485142 0.00101006 0.0191661 0.0511495 0.130934 0.108019 0.131727 -0.209235 -0.035612 0.106578 -0.105986 0.106076 -0.100078 0.0113713 0.0256753 -0.0358432 -0.141074 -0.123134 0.0180877 -0.101184 0.0519144 -0.0556183 0.133345 -0.044921 -0.0599099 -0.00244602 -0.00223813 0.00375152 -0.0130242 0.00835189 0.167074 -0.512476 0.0407056 0.0347446 -0.0456869 -0.019478 -0.024017 0.000495091 0.184047 0.450576 0.0514774 -0.114626 0.126283 0.0532717 0.131583 0.136954 0.470404 -1.10422 0.0255998 -0.0725895 -0.0603047 -0.332171 0.185028 0.161892 -0.195859 -0.29649 0.0898398 -0.222022 0.270904 -0.168893 0.130626 0.192978 -0.603322 0.83417 0.285592 -0.225365 0.37298 0.266503 0.228121 0.490666 0.254142 -0.929989 0.00231506 0.263061 -0.181802 0.309788 0.188224 -0.291327 0.41394 0.237197 0.189029 -0.0164564 -0.229874 0.14248 0.0282358 0.0513068 1.26086 0.202093 -0.00952297 -0.16435 -0.034229 -0.104786 0.13882 0.084985 0.0359777 0.0282118 -0.0781278 0.0239487 -0.013758 -0.175093 0.0257528 0.0346386 0.0584073 -0.0427858 -0.0696955 -0.0825466 -0.125149 -0.0518877 0.0194585 0.0939463 -0.120763 1.09497 -0.102916 -0.337233 0.167188 0.214007
15 0.011179 -0.0842133 0.0786131 0.0696315 -0.040053 -0.0194011 -0.0388019 0.0183135 -0.173612 -0.00327323 -0.0789822 0.0706219 0.0403391 0.0498949 0.0231151 -0.0427943 0.162198 0.082061 0.263028 -0.290378 0.105731 -0.00355811 0.00326739 -0.0310459 0.0344353 -0.0541346 0.0107796 0.0649011 0.0105804 -0.0171043 0.00432612 0.0946303 0.0730235 0.0675917 0.159494 -0.0424015 -0.0400826 0.00739019 -0.0850023 0.0525146 -0.0834922 -0.0673177 0.193324 -0.428001 -0.0497242 -0.0233927 0.047463 0.12211 0.0626634 0.033973 0.163787 0.474522 0.0835785 -0.177574 -0.0488199 0.0936263 0.183437 0.233033 0.630289 -1.45998 0.0303782 0.0694361 0.0380991 -0.0784738 0.0769891 0.0774032 -0.186414 -0.318983 0.152507 -0.10612 0.267997 -0.21098 0.136011 0.206474 -0.661964 0.727294 0.235901 -0.229638 0.123078 0.16208 -0.0272543 0.316789 0.22399 -0.834352 -0.0488523 0.190519 -0.0456307 0.239262 0.201085 -0.202094 0.41858 0.279214 0.314072 0.0493592 -0.254458 0.159397 0.112614 0.175456 1.12621 0.229971 -0.130866 -0.147978 -0.13267 -0.177465 0.221229 0.249577 0.0882585 -0.0337068 -0.0529891 -0.0449312 0.0407743 -0.395878 -0.0475377 -0.208386 0.103182 -0.0476189 -0.0658691 -0.129046 -0.193658 -0.10319 -0.0329241 0.0915153 -0.105935 1.1987 0.067228 -0.0319697 0.180699 0.160542
17 -0.0512357 0.105387 -0.0694634 -0.105068 -0.0267799 0.0330068 -0.0425903 0.0343981 -0.0108775 0.0117296 -0.0278169 0.0499358 0.108138 0.0886133 0.0643136 0.0482528 0.331263 0.21229 0.266745 -0.336668 -0.00391598 0.233958 -0.11545 0.0913289 -0.0231569 -0.0426953 0.0427883 0.0189549 -0.391701 -0.457541 0.0803126 -0.227624 0.214136 -0.0598311 0.199913 -0.0445058 -0.0412251 0.0340828 0.00755005 0.0163685 -0.102079 0.0542053 0.177857 -0.724057 -0.0413584 0.115841 -0.00877877 0.0112545 -0.0133507 -0.0750112 0.195484 0.447218 0.08613 0.0254612 0.0757777 0.00974705 -0.0383256 -0.000450496 0.584913 -1.20317 -0.00998526 -0.0328365 -0.0528497 -0.193393 0.134807 0.129883 -0.324676 -0.397811 0.0864083 -0.30297 0.371879 -0.152978 0.205579 0.222649 -0.657535 1.00729 0.1522 -0.17285 0.329639 0.208852 0.177684 0.388902 0.363641 -1.04946 0.0230359 -0.021964 -0.124931 0.164031 0.109166 -0.144584 0.411172 0.223062 -0.0114197 -0.0684859 -0.131361 0.053513 0.000181385 -0.00976205 1.57761 0.269726 -0.022441 -0.0290765 -0.0324336 -0.116971 0.0468588 -0.0394205 0.0624956 0.109667 0.130521 0.0998373 0.0407182 0.068399 0.0132858 0.0364136 0.0487426 -0.0066474 -0.128026 -0.0365225 -0.204934 -0.143173 -0.0206669 0.207836 -0.197191 1.52935 -0.0636222 -0.100633 0.186999 0.175702
